digraph Tree {
node [shape=box] ;
0 [label="X[2] <= 4.871\nentropy = 1.585\nsamples = 149\nvalue = [49, 50, 50]"] ;
1 [label="X[2] <= 2.635\nentropy = 1.166\nsamples = 98\nvalue = [49, 46, 3]"] ;
0 -> 1 [labeldistance=2.5, labelangle=45, headlabel="True"] ;
2 [label="entropy = 0.0\nsamples = 49\nvalue = [49, 0, 0]"] ;
1 -> 2 ;
3 [label="X[3] <= 1.635\nentropy = 0.332\nsamples = 49\nvalue = [0, 46, 3]"] ;
1 -> 3 ;
4 [label="entropy = 0.0\nsamples = 45\nvalue = [0, 45, 0]"] ;
3 -> 4 ;
5 [label="X[3] <= 1.744\nentropy = 0.811\nsamples = 4\nvalue = [0, 1, 3]"] ;
3 -> 5 ;
6 [label="entropy = 0.0\nsamples = 1\nvalue = [0, 0, 1]"] ;
5 -> 6 ;
7 [label="X[1] <= 3.157\nentropy = 0.918\nsamples = 3\nvalue = [0, 1, 2]"] ;
5 -> 7 ;
8 [label="entropy = 0.0\nsamples = 2\nvalue = [0, 0, 2]"] ;
7 -> 8 ;
9 [label="entropy = 0.0\nsamples = 1\nvalue = [0, 1, 0]"] ;
7 -> 9 ;
10 [label="X[3] <= 2.049\nentropy = 0.397\nsamples = 51\nvalue = [0, 4, 47]"] ;
0 -> 10 [labeldistance=2.5, labelangle=-45, headlabel="False"] ;
11 [label="X[2] <= 5.153\nentropy = 0.605\nsamples = 27\nvalue = [0, 4, 23]"] ;
10 -> 11 ;
12 [label="X[0] <= 6.213\nentropy = 0.863\nsamples = 14\nvalue = [0, 4, 10]"] ;
11 -> 12 ;
13 [label="X[3] <= 1.704\nentropy = 0.544\nsamples = 8\nvalue = [0, 1, 7]"] ;
12 -> 13 ;
14 [label="entropy = 1.0\nsamples = 2\nvalue = [0, 1, 1]"] ;
13 -> 14 ;
15 [label="entropy = 0.0\nsamples = 6\nvalue = [0, 0, 6]"] ;
13 -> 15 ;
16 [label="X[2] <= 5.05\nentropy = 1.0\nsamples = 6\nvalue = [0, 3, 3]"] ;
12 -> 16 ;
17 [label="entropy = 0.811\nsamples = 4\nvalue = [0, 3, 1]"] ;
16 -> 17 ;
18 [label="entropy = 0.0\nsamples = 2\nvalue = [0, 0, 2]"] ;
16 -> 18 ;
19 [label="entropy = 0.0\nsamples = 13\nvalue = [0, 0, 13]"] ;
11 -> 19 ;
20 [label="entropy = 0.0\nsamples = 24\nvalue = [0, 0, 24]"] ;
10 -> 20 ;
}